<?xml version="1.0"?>
<opencv_storage>
<cascade>
  <stageType>BOOST</stageType>
  <featureType>HAAR</featureType>
  <height>20</height>
  <width>20</width>
  <stageParams>
    <boostType>GAB</boostType>
    <minHitRate>9.9900001287460327e-01</minHitRate>
    <maxFalseAlarm>5.0000000745058060e-02</maxFalseAlarm>
    <weightTrimRate>9.4999999999999996e-01</weightTrimRate>
    <maxDepth>1</maxDepth>
    <maxWeakCount>100</maxWeakCount></stageParams>
  <featureParams>
    <maxCatCount>0</maxCatCount>
    <featSize>1</featSize>
    <mode>ALL</mode></featureParams>
  <stageNum>3</stageNum>
  <stages>
    <!-- stage 0 -->
    <_>
      <maxWeakCount>6</maxWeakCount>
      <stageThreshold>-1.0709633827209473e+00</stageThreshold>
      <weakClassifiers>
        <_>
          <internalNodes>
            0 -1 3 4.4248998165130615e-03</internalNodes>
          <leafValues>
            -7.3744493722915649e-01 9.2328768968582153e-01</leafValues></_>
        <_>
          <internalNodes>
            0 -1 9 1.4789415523409843e-02</internalNodes>
          <leafValues>
            -7.1437042951583862e-01 8.4230643510818481e-01</leafValues></_>
        <_>
          <internalNodes>
            0 -1 17 -1.5354443341493607e-02</internalNodes>
          <leafValues>
            6.5185666084289551e-01 -7.7335768938064575e-01</leafValues></_>
        <_>
          <internalNodes>
            0 -1 8 -9.8165273666381836e-03</internalNodes>
          <leafValues>
            9.9669504165649414e-01 -5.4870754480361938e-01</leafValues></_>
        <_>
          <internalNodes>
            0 -1 6 4.9268538132309914e-03</internalNodes>
          <leafValues>
            -4.6193897724151611e-01 9.5970666408538818e-01</leafValues></_>
        <_>
          <internalNodes>
            0 -1 0 2.2721376270055771e-02</internalNodes>
          <leafValues>
            -9.4402825832366943e-01 6.1945360898971558e-01</leafValues></_></weakClassifiers></_>
    <!-- stage 1 -->
    <_>
      <maxWeakCount>5</maxWeakCount>
      <stageThreshold>-1.7274681329727173e+00</stageThreshold>
      <weakClassifiers>
        <_>
          <internalNodes>
            0 -1 2 -6.1834962107241154e-03</internalNodes>
          <leafValues>
            9.1017961502075195e-01 -6.8953686952590942e-01</leafValues></_>
        <_>
          <internalNodes>
            0 -1 5 4.7488529235124588e-03</internalNodes>
          <leafValues>
            -5.5909848213195801e-01 8.5502403974533081e-01</leafValues></_>
        <_>
          <internalNodes>
            0 -1 1 2.0191520452499390e-02</internalNodes>
          <leafValues>
            5.6457179784774780e-01 -8.9797794818878174e-01</leafValues></_>
        <_>
          <internalNodes>
            0 -1 11 3.2377587631344795e-03</internalNodes>
          <leafValues>
            -5.8085477352142334e-01 8.6069530248641968e-01</leafValues></_>
        <_>
          <internalNodes>
            0 -1 14 -1.1886941269040108e-02</internalNodes>
          <leafValues>
            1. -5.0299054384231567e-01</leafValues></_></weakClassifiers></_>
    <!-- stage 2 -->
    <_>
      <maxWeakCount>7</maxWeakCount>
      <stageThreshold>-1.5019756555557251e+00</stageThreshold>
      <weakClassifiers>
        <_>
          <internalNodes>
            0 -1 16 -6.4498838037252426e-03</internalNodes>
          <leafValues>
            8.3428573608398438e-01 -6.8869566917419434e-01</leafValues></_>
        <_>
          <internalNodes>
            0 -1 15 7.2562191635370255e-03</internalNodes>
          <leafValues>
            -9.3169969320297241e-01 5.0082391500473022e-01</leafValues></_>
        <_>
          <internalNodes>
            0 -1 12 -6.4885010942816734e-03</internalNodes>
          <leafValues>
            9.5612680912017822e-01 -5.2312964200973511e-01</leafValues></_>
        <_>
          <internalNodes>
            0 -1 10 -1.0415062308311462e-02</internalNodes>
          <leafValues>
            1. -4.6501889824867249e-01</leafValues></_>
        <_>
          <internalNodes>
            0 -1 7 3.3197915763594210e-04</internalNodes>
          <leafValues>
            5.7384675741195679e-01 -9.7005164623260498e-01</leafValues></_>
        <_>
          <internalNodes>
            0 -1 4 -2.9472233727574348e-02</internalNodes>
          <leafValues>
            9.8582261800765991e-01 -4.8447397351264954e-01</leafValues></_>
        <_>
          <internalNodes>
            0 -1 13 1.3245724141597748e-02</internalNodes>
          <leafValues>
            -4.5310109853744507e-01 9.4603449106216431e-01</leafValues></_></weakClassifiers></_></stages>
  <features>
    <_>
      <rects>
        <_>
          0 14 20 6 -1.</_>
        <_>
          5 14 10 6 2.</_></rects>
      <tilted>0</tilted></_>
    <_>
      <rects>
        <_>
          2 8 16 8 -1.</_>
        <_>
          6 8 8 8 2.</_></rects>
      <tilted>0</tilted></_>
    <_>
      <rects>
        <_>
          5 10 1 3 -1.</_>
        <_>
          5 11 1 1 3.</_></rects>
      <tilted>0</tilted></_>
    <_>
      <rects>
        <_>
          6 8 3 1 -1.</_>
        <_>
          7 8 1 1 3.</_></rects>
      <tilted>0</tilted></_>
    <_>
      <rects>
        <_>
          6 10 12 2 -1.</_>
        <_>
          6 10 6 1 2.</_>
        <_>
          12 11 6 1 2.</_></rects>
      <tilted>0</tilted></_>
    <_>
      <rects>
        <_>
          7 6 3 1 -1.</_>
        <_>
          8 6 1 1 3.</_></rects>
      <tilted>0</tilted></_>
    <_>
      <rects>
        <_>
          7 13 3 1 -1.</_>
        <_>
          8 13 1 1 3.</_></rects>
      <tilted>0</tilted></_>
    <_>
      <rects>
        <_>
          8 0 12 8 -1.</_>
        <_>
          14 0 6 8 2.</_></rects>
      <tilted>0</tilted></_>
    <_>
      <rects>
        <_>
          8 7 3 1 -1.</_>
        <_>
          9 7 1 1 3.</_></rects>
      <tilted>0</tilted></_>
    <_>
      <rects>
        <_>
          9 7 3 3 -1.</_>
        <_>
          10 8 1 1 9.</_></rects>
      <tilted>0</tilted></_>
    <_>
      <rects>
        <_>
          9 12 3 1 -1.</_>
        <_>
          10 12 1 1 3.</_></rects>
      <tilted>0</tilted></_>
    <_>
      <rects>
        <_>
          10 10 1 2 -1.</_>
        <_>
          10 11 1 1 2.</_></rects>
      <tilted>0</tilted></_>
    <_>
      <rects>
        <_>
          11 13 3 1 -1.</_>
        <_>
          12 13 1 1 3.</_></rects>
      <tilted>0</tilted></_>
    <_>
      <rects>
        <_>
          13 8 2 3 -1.</_>
        <_>
          13 9 2 1 3.</_></rects>
      <tilted>0</tilted></_>
    <_>
      <rects>
        <_>
          13 9 1 3 -1.</_>
        <_>
          13 10 1 1 3.</_></rects>
      <tilted>0</tilted></_>
    <_>
      <rects>
        <_>
          14 0 6 6 -1.</_>
        <_>
          14 3 6 3 2.</_></rects>
      <tilted>0</tilted></_>
    <_>
      <rects>
        <_>
          14 7 1 3 -1.</_>
        <_>
          14 8 1 1 3.</_></rects>
      <tilted>0</tilted></_>
    <_>
      <rects>
        <_>
          16 1 4 18 -1.</_>
        <_>
          18 1 2 18 2.</_></rects>
      <tilted>0</tilted></_></features></cascade>
</opencv_storage>
