<?xml version="1.0"?>
<opencv_storage>
<cascade>
  <stageType>BOOST</stageType>
  <featureType>HAAR</featureType>
  <height>20</height>
  <width>20</width>
  <stageParams>
    <boostType>GAB</boostType>
    <minHitRate>9.9900001287460327e-01</minHitRate>
    <maxFalseAlarm>5.0000000745058060e-02</maxFalseAlarm>
    <weightTrimRate>9.4999999999999996e-01</weightTrimRate>
    <maxDepth>1</maxDepth>
    <maxWeakCount>100</maxWeakCount></stageParams>
  <featureParams>
    <maxCatCount>0</maxCatCount>
    <featSize>1</featSize>
    <mode>ALL</mode></featureParams>
  <stageNum>3</stageNum>
  <stages>
    <!-- stage 0 -->
    <_>
      <maxWeakCount>6</maxWeakCount>
      <stageThreshold>-2.1468886733055115e-01</stageThreshold>
      <weakClassifiers>
        <_>
          <internalNodes>
            0 -1 7 3.6742354277521372e-03</internalNodes>
          <leafValues>
            -6.1984860897064209e-01 9.0875464677810669e-01</leafValues></_>
        <_>
          <internalNodes>
            0 -1 11 1.2513808906078339e-02</internalNodes>
          <leafValues>
            -6.0822182893753052e-01 8.4700697660446167e-01</leafValues></_>
        <_>
          <internalNodes>
            0 -1 9 -8.2433326169848442e-03</internalNodes>
          <leafValues>
            5.9408074617385864e-01 -8.2588648796081543e-01</leafValues></_>
        <_>
          <internalNodes>
            0 -1 0 1.9386805593967438e-02</internalNodes>
          <leafValues>
            -9.3013799190521240e-01 4.7471013665199280e-01</leafValues></_>
        <_>
          <internalNodes>
            0 -1 16 2.7989540249109268e-02</internalNodes>
          <leafValues>
            -8.8699436187744141e-01 4.5408001542091370e-01</leafValues></_>
        <_>
          <internalNodes>
            0 -1 14 3.9853667840361595e-03</internalNodes>
          <leafValues>
            -5.0948929786682129e-01 9.8136019706726074e-01</leafValues></_></weakClassifiers></_>
    <!-- stage 1 -->
    <_>
      <maxWeakCount>6</maxWeakCount>
      <stageThreshold>-1.2275966405868530e+00</stageThreshold>
      <weakClassifiers>
        <_>
          <internalNodes>
            0 -1 12 4.3106828816235065e-03</internalNodes>
          <leafValues>
            -5.6521737575531006e-01 8.8220232725143433e-01</leafValues></_>
        <_>
          <internalNodes>
            0 -1 10 1.3062056154012680e-02</internalNodes>
          <leafValues>
            -5.3790652751922607e-01 8.0739241838455200e-01</leafValues></_>
        <_>
          <internalNodes>
            0 -1 1 3.6280844360589981e-02</internalNodes>
          <leafValues>
            4.6813189983367920e-01 -9.6874403953552246e-01</leafValues></_>
        <_>
          <internalNodes>
            0 -1 3 -3.8500845432281494e-02</internalNodes>
          <leafValues>
            -9.7549116611480713e-01 3.7841033935546875e-01</leafValues></_>
        <_>
          <internalNodes>
            0 -1 4 -2.2895028814673424e-02</internalNodes>
          <leafValues>
            9.4700890779495239e-01 -5.2741390466690063e-01</leafValues></_>
        <_>
          <internalNodes>
            0 -1 15 -2.5141550227999687e-02</internalNodes>
          <leafValues>
            9.5760309696197510e-01 -5.3711915016174316e-01</leafValues></_></weakClassifiers></_>
    <!-- stage 2 -->
    <_>
      <maxWeakCount>8</maxWeakCount>
      <stageThreshold>-2.0065793395042419e-01</stageThreshold>
      <weakClassifiers>
        <_>
          <internalNodes>
            0 -1 2 5.5893354117870331e-02</internalNodes>
          <leafValues>
            4.6605643630027771e-01 -8.8679248094558716e-01</leafValues></_>
        <_>
          <internalNodes>
            0 -1 13 -5.8215395547449589e-03</internalNodes>
          <leafValues>
            9.0922957658767700e-01 -5.1697713136672974e-01</leafValues></_>
        <_>
          <internalNodes>
            0 -1 17 -3.6379144148668274e-05</internalNodes>
          <leafValues>
            -1. 4.6615603566169739e-01</leafValues></_>
        <_>
          <internalNodes>
            0 -1 17 7.3619390605017543e-05</internalNodes>
          <leafValues>
            5.0729781389236450e-01 -9.0155971050262451e-01</leafValues></_>
        <_>
          <internalNodes>
            0 -1 5 -6.5194871276617050e-03</internalNodes>
          <leafValues>
            8.4509414434432983e-01 -6.0189217329025269e-01</leafValues></_>
        <_>
          <internalNodes>
            0 -1 6 -5.3402478806674480e-03</internalNodes>
          <leafValues>
            9.5715057849884033e-01 -4.9521297216415405e-01</leafValues></_>
        <_>
          <internalNodes>
            0 -1 18 -8.7530352175235748e-05</internalNodes>
          <leafValues>
            -9.9346250295639038e-01 4.9013775587081909e-01</leafValues></_>
        <_>
          <internalNodes>
            0 -1 8 3.3469190821051598e-03</internalNodes>
          <leafValues>
            -5.1622372865676880e-01 9.2113262414932251e-01</leafValues></_></weakClassifiers></_></stages>
  <features>
    <_>
      <rects>
        <_>
          0 15 20 5 -1.</_>
        <_>
          5 15 10 5 2.</_></rects>
      <tilted>0</tilted></_>
    <_>
      <rects>
        <_>
          2 5 18 9 -1.</_>
        <_>
          11 5 9 9 2.</_></rects>
      <tilted>0</tilted></_>
    <_>
      <rects>
        <_>
          3 5 15 12 -1.</_>
        <_>
          8 9 5 4 9.</_></rects>
      <tilted>0</tilted></_>
    <_>
      <rects>
        <_>
          5 2 12 16 -1.</_>
        <_>
          11 2 6 16 2.</_></rects>
      <tilted>0</tilted></_>
    <_>
      <rects>
        <_>
          5 10 3 3 -1.</_>
        <_>
          6 11 1 1 9.</_></rects>
      <tilted>0</tilted></_>
    <_>
      <rects>
        <_>
          6 6 3 1 -1.</_>
        <_>
          7 6 1 1 3.</_></rects>
      <tilted>0</tilted></_>
    <_>
      <rects>
        <_>
          6 6 2 2 -1.</_>
        <_>
          6 6 1 1 2.</_>
        <_>
          7 7 1 1 2.</_></rects>
      <tilted>0</tilted></_>
    <_>
      <rects>
        <_>
          7 6 3 1 -1.</_>
        <_>
          8 6 1 1 3.</_></rects>
      <tilted>0</tilted></_>
    <_>
      <rects>
        <_>
          7 7 2 2 -1.</_>
        <_>
          7 7 1 1 2.</_>
        <_>
          8 8 1 1 2.</_></rects>
      <tilted>0</tilted></_>
    <_>
      <rects>
        <_>
          7 9 6 3 -1.</_>
        <_>
          9 10 2 1 9.</_></rects>
      <tilted>0</tilted></_>
    <_>
      <rects>
        <_>
          8 10 3 3 -1.</_>
        <_>
          9 11 1 1 9.</_></rects>
      <tilted>0</tilted></_>
    <_>
      <rects>
        <_>
          9 7 3 3 -1.</_>
        <_>
          10 8 1 1 9.</_></rects>
      <tilted>0</tilted></_>
    <_>
      <rects>
        <_>
          10 13 3 1 -1.</_>
        <_>
          11 13 1 1 3.</_></rects>
      <tilted>0</tilted></_>
    <_>
      <rects>
        <_>
          11 6 3 1 -1.</_>
        <_>
          12 6 1 1 3.</_></rects>
      <tilted>0</tilted></_>
    <_>
      <rects>
        <_>
          11 11 2 2 -1.</_>
        <_>
          11 11 1 1 2.</_>
        <_>
          12 12 1 1 2.</_></rects>
      <tilted>0</tilted></_>
    <_>
      <rects>
        <_>
          12 10 3 3 -1.</_>
        <_>
          13 11 1 1 9.</_></rects>
      <tilted>0</tilted></_>
    <_>
      <rects>
        <_>
          14 0 6 20 -1.</_>
        <_>
          14 5 6 10 2.</_></rects>
      <tilted>0</tilted></_>
    <_>
      <rects>
        <_>
          18 0 2 2 -1.</_>
        <_>
          18 1 2 1 2.</_></rects>
      <tilted>0</tilted></_>
    <_>
      <rects>
        <_>
          18 0 2 4 -1.</_>
        <_>
          18 2 2 2 2.</_></rects>
      <tilted>0</tilted></_></features></cascade>
</opencv_storage>
