<?xml version="1.0"?>
<opencv_storage>
<stage2>
  <maxWeakCount>8</maxWeakCount>
  <stageThreshold>-2.0065793395042419e-01</stageThreshold>
  <weakClassifiers>
    <_>
      <internalNodes>
        0 -1 33249 5.5893354117870331e-02</internalNodes>
      <leafValues>
        4.6605643630027771e-01 -8.8679248094558716e-01</leafValues></_>
    <_>
      <internalNodes>
        0 -1 96991 -5.8215395547449589e-03</internalNodes>
      <leafValues>
        9.0922957658767700e-01 -5.1697713136672974e-01</leafValues></_>
    <_>
      <internalNodes>
        0 -1 123640 -3.6379144148668274e-05</internalNodes>
      <leafValues>
        -1. 4.6615603566169739e-01</leafValues></_>
    <_>
      <internalNodes>
        0 -1 123640 7.3619390605017543e-05</internalNodes>
      <leafValues>
        5.0729781389236450e-01 -9.0155971050262451e-01</leafValues></_>
    <_>
      <internalNodes>
        0 -1 60166 -6.5194871276617050e-03</internalNodes>
      <leafValues>
        8.4509414434432983e-01 -6.0189217329025269e-01</leafValues></_>
    <_>
      <internalNodes>
        0 -1 60170 -5.3402478806674480e-03</internalNodes>
      <leafValues>
        9.5715057849884033e-01 -4.9521297216415405e-01</leafValues></_>
    <_>
      <internalNodes>
        0 -1 123646 -8.7530352175235748e-05</internalNodes>
      <leafValues>
        -9.9346250295639038e-01 4.9013775587081909e-01</leafValues></_>
    <_>
      <internalNodes>
        0 -1 68879 3.3469190821051598e-03</internalNodes>
      <leafValues>
        -5.1622372865676880e-01 9.2113262414932251e-01</leafValues></_></weakClassifiers></stage2>
</opencv_storage>
