<?xml version="1.0"?>
<opencv_storage>
<stage2>
  <maxWeakCount>7</maxWeakCount>
  <stageThreshold>-1.5019756555557251e+00</stageThreshold>
  <weakClassifiers>
    <_>
      <internalNodes>
        0 -1 113133 -6.4498838037252426e-03</internalNodes>
      <leafValues>
        8.3428573608398438e-01 -6.8869566917419434e-01</leafValues></_>
    <_>
      <internalNodes>
        0 -1 110819 7.2562191635370255e-03</internalNodes>
      <leafValues>
        -9.3169969320297241e-01 5.0082391500473022e-01</leafValues></_>
    <_>
      <internalNodes>
        0 -1 99280 -6.4885010942816734e-03</internalNodes>
      <leafValues>
        9.5612680912017822e-01 -5.2312964200973511e-01</leafValues></_>
    <_>
      <internalNodes>
        0 -1 85999 -1.0415062308311462e-02</internalNodes>
      <leafValues>
        1. -4.6501889824867249e-01</leafValues></_>
    <_>
      <internalNodes>
        0 -1 72693 3.3197915763594210e-04</internalNodes>
      <leafValues>
        5.7384675741195679e-01 -9.7005164623260498e-01</leafValues></_>
    <_>
      <internalNodes>
        0 -1 62479 -2.9472233727574348e-02</internalNodes>
      <leafValues>
        9.8582261800765991e-01 -4.8447397351264954e-01</leafValues></_>
    <_>
      <internalNodes>
        0 -1 108908 1.3245724141597748e-02</internalNodes>
      <leafValues>
        -4.5310109853744507e-01 9.4603449106216431e-01</leafValues></_></weakClassifiers></stage2>
</opencv_storage>
