<?xml version="1.0"?>
<opencv_storage>
<stage0>
  <maxWeakCount>6</maxWeakCount>
  <stageThreshold>-1.0709633827209473e+00</stageThreshold>
  <weakClassifiers>
    <_>
      <internalNodes>
        0 -1 61276 4.4248998165130615e-03</internalNodes>
      <leafValues>
        -7.3744493722915649e-01 9.2328768968582153e-01</leafValues></_>
    <_>
      <internalNodes>
        0 -1 84176 1.4789415523409843e-02</internalNodes>
      <leafValues>
        -7.1437042951583862e-01 8.4230643510818481e-01</leafValues></_>
    <_>
      <internalNodes>
        0 -1 118921 -1.5354443341493607e-02</internalNodes>
      <leafValues>
        6.5185666084289551e-01 -7.7335768938064575e-01</leafValues></_>
    <_>
      <internalNodes>
        0 -1 76846 -9.8165273666381836e-03</internalNodes>
      <leafValues>
        9.9669504165649414e-01 -5.4870754480361938e-01</leafValues></_>
    <_>
      <internalNodes>
        0 -1 71252 4.9268538132309914e-03</internalNodes>
      <leafValues>
        -4.6193897724151611e-01 9.5970666408538818e-01</leafValues></_>
    <_>
      <internalNodes>
        0 -1 9191 2.2721376270055771e-02</internalNodes>
      <leafValues>
        -9.4402825832366943e-01 6.1945360898971558e-01</leafValues></_></weakClassifiers></stage0>
</opencv_storage>
