<?xml version="1.0"?>
<opencv_storage>
<stage1>
  <maxWeakCount>6</maxWeakCount>
  <stageThreshold>9.6745878458023071e-02</stageThreshold>
  <weakClassifiers>
    <_>
      <internalNodes>
        0 -1 68325 4.5844521373510361e-03</internalNodes>
      <leafValues>
        -7.6779025793075562e-01 7.4074071645736694e-01</leafValues></_>
    <_>
      <internalNodes>
        0 -1 78234 1.5208959579467773e-02</internalNodes>
      <leafValues>
        -6.7875593900680542e-01 8.0565977096557617e-01</leafValues></_>
    <_>
      <internalNodes>
        0 -1 8737 -3.2089650630950928e-02</internalNodes>
      <leafValues>
        5.0980257987976074e-01 -9.2841768264770508e-01</leafValues></_>
    <_>
      <internalNodes>
        0 -1 961 2.7530658990144730e-02</internalNodes>
      <leafValues>
        -9.6237182617187500e-01 4.3607079982757568e-01</leafValues></_>
    <_>
      <internalNodes>
        0 -1 72689 -1.7246814677491784e-03</internalNodes>
      <leafValues>
        2.9394701123237610e-01 -9.8755246400833130e-01</leafValues></_>
    <_>
      <internalNodes>
        0 -1 97 -2.0721241526189260e-05</internalNodes>
      <leafValues>
        -1. 3.0347168445587158e-01</leafValues></_></weakClassifiers></stage1>
</opencv_storage>
