<?xml version="1.0"?>
<opencv_storage>
<stage1>
  <maxWeakCount>6</maxWeakCount>
  <stageThreshold>-1.2275966405868530e+00</stageThreshold>
  <weakClassifiers>
    <_>
      <internalNodes>
        0 -1 93031 4.3106828816235065e-03</internalNodes>
      <leafValues>
        -5.6521737575531006e-01 8.8220232725143433e-01</leafValues></_>
    <_>
      <internalNodes>
        0 -1 78234 1.3062056154012680e-02</internalNodes>
      <leafValues>
        -5.3790652751922607e-01 8.0739241838455200e-01</leafValues></_>
    <_>
      <internalNodes>
        0 -1 24094 3.6280844360589981e-02</internalNodes>
      <leafValues>
        4.6813189983367920e-01 -9.6874403953552246e-01</leafValues></_>
    <_>
      <internalNodes>
        0 -1 49356 -3.8500845432281494e-02</internalNodes>
      <leafValues>
        -9.7549116611480713e-01 3.7841033935546875e-01</leafValues></_>
    <_>
      <internalNodes>
        0 -1 53719 -2.2895028814673424e-02</internalNodes>
      <leafValues>
        9.4700890779495239e-01 -5.2741390466690063e-01</leafValues></_>
    <_>
      <internalNodes>
        0 -1 104374 -2.5141550227999687e-02</internalNodes>
      <leafValues>
        9.5760309696197510e-01 -5.3711915016174316e-01</leafValues></_></weakClassifiers></stage1>
</opencv_storage>
