<?xml version="1.0"?>
<opencv_storage>
<stage0>
  <maxWeakCount>6</maxWeakCount>
  <stageThreshold>-2.1468886733055115e-01</stageThreshold>
  <weakClassifiers>
    <_>
      <internalNodes>
        0 -1 68325 3.6742354277521372e-03</internalNodes>
      <leafValues>
        -6.1984860897064209e-01 9.0875464677810669e-01</leafValues></_>
    <_>
      <internalNodes>
        0 -1 84176 1.2513808906078339e-02</internalNodes>
      <leafValues>
        -6.0822182893753052e-01 8.4700697660446167e-01</leafValues></_>
    <_>
      <internalNodes>
        0 -1 69940 -8.2433326169848442e-03</internalNodes>
      <leafValues>
        5.9408074617385864e-01 -8.2588648796081543e-01</leafValues></_>
    <_>
      <internalNodes>
        0 -1 9444 1.9386805593967438e-02</internalNodes>
      <leafValues>
        -9.3013799190521240e-01 4.7471013665199280e-01</leafValues></_>
    <_>
      <internalNodes>
        0 -1 110832 2.7989540249109268e-02</internalNodes>
      <leafValues>
        -8.8699436187744141e-01 4.5408001542091370e-01</leafValues></_>
    <_>
      <internalNodes>
        0 -1 98823 3.9853667840361595e-03</internalNodes>
      <leafValues>
        -5.0948929786682129e-01 9.8136019706726074e-01</leafValues></_></weakClassifiers></stage0>
</opencv_storage>
